<?xml version="1.0"?>
<opencv_storage>
<cascade>
  <stageType>BOOST</stageType>
  <featureType>LBP</featureType>
  <height>40</height>
  <width>32</width>
  <stageParams>
    <boostType>GAB</boostType>
    <minHitRate>9.0000001287460327e-001</minHitRate>
    <maxFalseAlarm>1.0000000000000000e-001</maxFalseAlarm>
    <weightTrimRate>0.4999999999999996e-001</weightTrimRate>
    <maxDepth>1</maxDepth>
    <maxWeakCount>10</maxWeakCount></stageParams>
  <featureParams>
    <maxCatCount>256</maxCatCount>
    <featSize>1</featSize></featureParams>
  <stageNum>20</stageNum>
  <stages>
    <!-- stage 0 -->
    <_>
      <maxWeakCount>3</maxWeakCount>
      <stageThreshold>-1.0968580245971680e+000</stageThreshold>
      <weakClassifiers>
        <_>
          <internalNodes>
            0 -1 117 -21845 -23873 64954891 -24405 -67114053 -22613
            -1409350997 -21845</internalNodes>
          <leafValues>
            -7.3772287368774414e-001 6.9199359416961670e-001</leafValues></_>
        <_>
          <internalNodes>
            0 -1 11 -683359168 -145689920 -640418084 -34341124
            1095815504 -619318395 -610927631 -1</internalNodes>
          <leafValues>
            -8.3109915256500244e-001 5.1303154230117798e-001</leafValues></_>
        <_>
          <internalNodes>
            0 -1 313 -1069089170 1342236788 -875628070 -688848897
            -2142966824 -799998513 -23135238 -100663297</internalNodes>
          <leafValues>
            -6.7250204086303711e-001 4.7196397185325623e-001</leafValues></_></weakClassifiers></_>
    <!-- stage 1 -->
    <_>
      <maxWeakCount>8</maxWeakCount>
      <stageThreshold>-1.8752350807189941e+000</stageThreshold>
      <weakClassifiers>
        <_>
          <internalNodes>
            0 -1 131 -151520526 -2101545 5251600 -536879025 -1053781
            -3159617 -481432917 -1029</internalNodes>
          <leafValues>
            -6.6454893350601196e-001 6.5222698450088501e-001</leafValues></_>
        <_>
          <internalNodes>
            0 -1 53 -21569 -20769 1893474866 -1448105334 -2117697
            -280595 -336655862 -21973</internalNodes>
          <leafValues>
            -5.6529206037521362e-001 5.4103851318359375e-001</leafValues></_>
        <_>
          <internalNodes>
            0 -1 81 -2621441 -20654338 -78127137 -858456342 -171574287
            -1002115324 -210370812 1145437767</internalNodes>
          <leafValues>
            -6.8338990211486816e-001 4.0468597412109375e-001</leafValues></_>
        <_>
          <internalNodes>
            0 -1 29 -541065233 -288428049 -302059922 -496046866 -4194969
            -285491201 -530572 -16777481</internalNodes>
          <leafValues>
            -5.8401668071746826e-001 4.1689002513885498e-001</leafValues></_>
        <_>
          <internalNodes>
            0 -1 222 -683677761 1603622159 2139580079 536300939
            582682539 536564603 58654767 1005536699</internalNodes>
          <leafValues>
            -5.4215097427368164e-001 4.4267594814300537e-001</leafValues></_>
        <_>
          <internalNodes>
            0 -1 352 -19136737 -281019585 -310379536 -487392274
            -620765371 -8651777 -1049008 -17825821</internalNodes>
          <leafValues>
            -5.2050709724426270e-001 4.2561832070350647e-001</leafValues></_>
        <_>
          <internalNodes>
            0 -1 18 -252583728 -733941932 -656617848 -33558785
            1343551988 -48971536 -645826391 -268961281</internalNodes>
          <leafValues>
            -5.8324325084686279e-001 3.5718703269958496e-001</leafValues></_>
        <_>
          <internalNodes>
            0 -1 170 -557322686 -867380553 -1945841984 1151661399
            -27134989 -389141878 -264967356 -564133978</internalNodes>
          <leafValues>
            -5.0887143611907959e-001 3.8135814666748047e-001</leafValues></_></weakClassifiers></_>
    <!-- stage 2 -->
    <_>
      <maxWeakCount>11</maxWeakCount>
      <stageThreshold>-2.1669669151306152e+000</stageThreshold>
      <weakClassifiers>
        <_>
          <internalNodes>
            0 -1 106 -2774357 -2125889 31271563 -23893 -1141002321
            -1076122199 -272913749 -21841</internalNodes>
          <leafValues>
            -6.9484341144561768e-001 5.1985079050064087e-001</leafValues></_>
        <_>
          <internalNodes>
            0 -1 312 -792658966 1409609983 -1279197985 -35652673
            -984749329 -38953989 -91488258 -1</internalNodes>
          <leafValues>
            -6.0107880830764771e-001 4.1383013129234314e-001</leafValues></_>
        <_>
          <internalNodes>
            0 -1 88 -8391713 856895667 2002638747 865286819 -1088426049
            992688367 2144070591 1006353195</internalNodes>
          <leafValues>
            -5.2637070417404175e-001 4.4738990068435669e-001</leafValues></_>
        <_>
          <internalNodes>
            0 -1 271 -573572175 520144128 -846606031 251904001
            -1620968525 -1643919613 -1981818109 252444587</internalNodes>
          <leafValues>
            -4.8073297739028931e-001 4.6175533533096313e-001</leafValues></_>
        <_>
          <internalNodes>
            0 -1 19 -17306410 -171713680 -191708460 -76025646 -211421456
            -113208608 -315371040 -782769968</internalNodes>
          <leafValues>
            -4.9006533622741699e-001 3.9807993173599243e-001</leafValues></_>
        <_>
          <internalNodes>
            0 -1 242 1956110566 1901717435 335908046 1975981037
            1075142848 9795635 1637186030 -171590161</internalNodes>
          <leafValues>
            -5.1315408945083618e-001 3.1288912892341614e-001</leafValues></_>
        <_>
          <internalNodes>
            0 -1 67 -1069101590 -453326740 1301667157 -821147762
            1077939712 -856977923 1873272591 1341081423</internalNodes>
          <leafValues>
            -5.2516055107116699e-001 3.1148687005043030e-001</leafValues></_>
        <_>
          <internalNodes>
            0 -1 136 1299445666 1409336192 -877228032 -774584284
            1390540223 1227219329 -739783713 -707397665</internalNodes>
          <leafValues>
            -4.0689867734909058e-001 3.8882410526275635e-001</leafValues></_>
        <_>
          <internalNodes>
            0 -1 231 75546640 498621884 2118363481 -550653475 774683377
            -1696791131 2066234937 804990011</internalNodes>
          <leafValues>
            -4.4815766811370850e-001 3.5078969597816467e-001</leafValues></_>
        <_>
          <internalNodes>
            0 -1 48 -1356660745 -1435587096 -138416137 -269614339
            -1342738433 -369836545 -134776841 -1614850715</internalNodes>
          <leafValues>
            -3.7157064676284790e-001 4.1253331303596497e-001</leafValues></_>
        <_>
          <internalNodes>
            0 -1 228 -319968473 -2035421185 -302008794 -419514369
            402651007 -830472193 -142606735 -84412945</internalNodes>
          <leafValues>
            -3.7585347890853882e-001 3.9570230245590210e-001</leafValues></_></weakClassifiers></_>
    <!-- stage 3 -->
    <_>
      <maxWeakCount>12</maxWeakCount>
      <stageThreshold>-1.9568243026733398e+000</stageThreshold>
      <weakClassifiers>
        <_>
          <internalNodes>
            0 -1 74 -2118721 -2118913 466944699 -2118981 -2114625 -19041
            -68703573 -21573</internalNodes>
          <leafValues>
            -6.3551503419876099e-001 5.3120982646942139e-001</leafValues></_>
        <_>
          <internalNodes>
            0 -1 96 -212731917 1342239552 1509424991 -172493833
            -585760769 -8912897 -42729473 -65</internalNodes>
          <leafValues>
            -4.2629197239875793e-001 5.7884317636489868e-001</leafValues></_>
        <_>
          <internalNodes>
            0 -1 351 -926221228 201389404 -922495523 -841025027
            -110103372 -1146181466 -543171859 -1</internalNodes>
          <leafValues>
            -6.5586626529693604e-001 3.3591890335083008e-001</leafValues></_>
        <_>
          <internalNodes>
            0 -1 72 -88606729 866025506 2137766903 639637018 1904212991
            -1078102609 2130705391 212284087</internalNodes>
          <leafValues>
            -5.7499903440475464e-001 3.0551698803901672e-001</leafValues></_>
        <_>
          <internalNodes>
            0 -1 25 -17827841 -287900793 -469762182 -488184378
            -271585453 -322987009 -18877100 -17827114</internalNodes>
          <leafValues>
            -5.1590454578399658e-001 3.6626911163330078e-001</leafValues></_>
        <_>
          <internalNodes>
            0 -1 294 -238027341 386095392 -1858872943 1493262355
            -1433410133 -1724918733 377478043 134997915</internalNodes>
          <leafValues>
            -4.3404820561408997e-001 4.0603032708168030e-001</leafValues></_>
        <_>
          <internalNodes>
            0 -1 241 -353390813 -1496324193 -872797334 -360011826
            -1762703532 -1015440043 -269230496 -269288090</internalNodes>
          <leafValues>
            -4.7531810402870178e-001 3.8432848453521729e-001</leafValues></_>
        <_>
          <internalNodes>
            0 -1 248 68432949 -1122225224 -1643249665 -538068227
            832560124 -624673832 -1078182915 -1347940192</internalNodes>
          <leafValues>
            -4.9122518301010132e-001 3.3216124773025513e-001</leafValues></_>
        <_>
          <internalNodes>
            0 -1 40 -152048929 -568334417 1285038814 302036660
            1212892165 -831124345 2086715616 -260573738</internalNodes>
          <leafValues>
            -4.4283196330070496e-001 3.6807033419609070e-001</leafValues></_>
        <_>
          <internalNodes>
            0 -1 221 -143133857 -186681481 1998575615 -203812018
            -1049560924 -1081880922 1968526672 1381324487</internalNodes>
          <leafValues>
            -4.7866269946098328e-001 3.1872773170471191e-001</leafValues></_>
        <_>
          <internalNodes>
            0 -1 63 -3147062 -1941247234 433050375 -286393369 -76817536
            -928751024 2065689419 1246219615</internalNodes>
          <leafValues>
            -4.7104492783546448e-001 3.3754408359527588e-001</leafValues></_>
        <_>
          <internalNodes>
            0 -1 124 255012913 1033116092 -280586243 2146259199
            958005493 -1111228993 2079545853 -1073933259</internalNodes>
          <leafValues>
            -4.5332977175712585e-001 3.3103081583976746e-001</leafValues></_></weakClassifiers></_>
    <!-- stage 4 -->
    <_>
      <maxWeakCount>14</maxWeakCount>
      <stageThreshold>-1.9547742605209351e+000</stageThreshold>
      <weakClassifiers>
        <_>
          <internalNodes>
            0 -1 171 -17 -33 -167772434 -1 -2097153 -2097409 -1 -1</internalNodes>
          <leafValues>
            -5.2783071994781494e-001 5.4121744632720947e-001</leafValues></_>
        <_>
          <internalNodes>
            0 -1 300 1078248654 -780807169 -58789905 -570557441
            -783973489 -102765601 -83103841 -1048577</internalNodes>
          <leafValues>
            -5.1018393039703369e-001 3.8716971874237061e-001</leafValues></_>
        <_>
          <internalNodes>
            0 -1 15 -295512240 -84477958 -17640481 -105191430 -603693744
            -12060005 -135922211 -33</internalNodes>
          <leafValues>
            -6.7006462812423706e-001 2.7707406878471375e-001</leafValues></_>
        <_>
          <internalNodes>
            0 -1 370 -305139853 -291570833 -25692301 -1369130157
            -10495979 -549453885 2043639124 -891618192</internalNodes>
          <leafValues>
            -4.8857861757278442e-001 3.6232390999794006e-001</leafValues></_>
        <_>
          <internalNodes>
            0 -1 278 -763894193 1939328702 -526463258 1660940031
            1074873367 1936160358 -176816129 -211289265</internalNodes>
          <leafValues>
            -4.1970995068550110e-001 3.8766714930534363e-001</leafValues></_>
        <_>
          <internalNodes>
            0 -1 47 -2101329 -93331649 -420816644 -488177666 -689
            1685845471 -136845826 -151003393</internalNodes>
          <leafValues>
            -4.2469561100006104e-001 3.4930172562599182e-001</leafValues></_>
        <_>
          <internalNodes>
            0 -1 250 674503508 -1074254371 -1107830793 -1082196746
            -1157832715 -202584628 1069301247 -1078459980</internalNodes>
          <leafValues>
            -4.5129233598709106e-001 3.4297037124633789e-001</leafValues></_>
        <_>
          <internalNodes>
            0 -1 154 -1367399529 788405049 -403122435 184070079
            -50471427 -21495978 -55066883 -1464016932</internalNodes>
          <leafValues>
            -4.7098687291145325e-001 3.1102457642555237e-001</leafValues></_>
        <_>
          <internalNodes>
            0 -1 274 -150996003 -536924161 -43262529 -34243778 -1603348
            -1075237381 559155340 1016548355</internalNodes>
          <leafValues>
            -4.3043503165245056e-001 3.4320276975631714e-001</leafValues></_>
        <_>
          <internalNodes>
            0 -1 59 -805847053 -654319373 -546322435 -521027349 -2097242
            -828940348 -143131887 -1069154557</internalNodes>
          <leafValues>
            -4.3473824858665466e-001 3.4543561935424805e-001</leafValues></_>
        <_>
          <internalNodes>
            0 -1 101 -269746497 1858508070 1711275772 -294723930
            1857778927 155179963 1203990596 -134482185</internalNodes>
          <leafValues>
            -4.1761571168899536e-001 3.3267176151275635e-001</leafValues></_>
        <_>
          <internalNodes>
            0 -1 208 685780144 1054890228 -1211048963 -1078183170
            565052320 -1074221318 -24371204 -1897394948</internalNodes>
          <leafValues>
            -5.1687151193618774e-001 2.5233951210975647e-001</leafValues></_>
        <_>
          <internalNodes>
            0 -1 214 -1947734237 577672315 -1629565133 -486550094
            -405940379 1308575151 -800655902 -83894277</internalNodes>
          <leafValues>
            -4.3365266919136047e-001 3.1923216581344604e-001</leafValues></_>
        <_>
          <internalNodes>
            0 -1 266 -26743390 269011474 898058792 159973278 -54138135
            -2146269064 877832602 257247</internalNodes>
          <leafValues>
            -5.0054216384887695e-001 2.8021675348281860e-001</leafValues></_></weakClassifiers></_>
    <!-- stage 5 -->
    <_>
      <maxWeakCount>13</maxWeakCount>
      <stageThreshold>-2.1901369094848633e+000</stageThreshold>
      <weakClassifiers>
        <_>
          <internalNodes>
            0 -1 129 -2248769 -20593 1607314091 -2119026 -2097217 -1537
            -37254486 -1078354</internalNodes>
          <leafValues>
            -5.8791333436965942e-001 4.3651452660560608e-001</leafValues></_>
        <_>
          <internalNodes>
            0 -1 276 -4305 -83886121 -4353 -67108869 1744532327
            2139059775 -134745227 -524313</internalNodes>
          <leafValues>
            -4.2992082238197327e-001 4.7141394019126892e-001</leafValues></_>
        <_>
          <internalNodes>
            0 -1 80 1963062528 -213862449 -550135359 -4313 -715787283
            -2756117 -67895297 -1313</internalNodes>
          <leafValues>
            -4.8949843645095825e-001 3.6266565322875977e-001</leafValues></_>
        <_>
          <internalNodes>
            0 -1 24 -1 -352325761 -641 -352393410 -10486001 -92274945
            -1048729 -50397194</internalNodes>
          <leafValues>
            -3.7213310599327087e-001 4.4452294707298279e-001</leafValues></_>
        <_>
          <internalNodes>
            0 -1 225 1084423698 -1068706861 673215381 -19008545
            -532630800 -57357130 -217781762 -9110545</internalNodes>
          <leafValues>
            -5.6167870759963989e-001 2.9923924803733826e-001</leafValues></_>
        <_>
          <internalNodes>
            0 -1 215 -268439769 -2136024085 -743989630 -419449885
            -1621101705 -1879890945 -272897727 -570426433</internalNodes>
          <leafValues>
            -4.3840882182121277e-001 3.3575242757797241e-001</leafValues></_>
        <_>
          <internalNodes>
            0 -1 363 -268443785 -353386497 -92274889 -353435809
            -20977819 -1073755662 -134283404 -557909180</internalNodes>
          <leafValues>
            -4.2363113164901733e-001 3.5872969031333923e-001</leafValues></_>
        <_>
          <internalNodes>
            0 -1 114 -1905270049 719069711 1956232663 784786943
            -631253551 -13445 -10883355 -386859344</internalNodes>
          <leafValues>
            -4.6645179390907288e-001 2.9047968983650208e-001</leafValues></_>
        <_>
          <internalNodes>
            0 -1 359 -10485773 620821482 -1351156096 134281120
            -543822957 1801315262 1442305040 -872942096</internalNodes>
          <leafValues>
            -4.1767251491546631e-001 3.2250794768333435e-001</leafValues></_>
        <_>
          <internalNodes>
            0 -1 234 68952628 930641661 -141280263 -1278215 -1686750275
            -67319732 -1073996289 -1946678752</internalNodes>
          <leafValues>
            -5.0773966312408447e-001 2.7230823040008545e-001</leafValues></_>
        <_>
          <internalNodes>
            0 -1 9 1464988917 856922626 -1525624325 188393871 2035250423
            2134329019 1996975799 801075967</internalNodes>
          <leafValues>
            -4.6712401509284973e-001 2.9186305403709412e-001</leafValues></_>
        <_>
          <internalNodes>
            0 -1 65 -968692018 -3257137 -430543730 -423467346 1312965696
            -867548497 2068335695 1333742167</internalNodes>
          <leafValues>
            -5.4806017875671387e-001 2.4350696802139282e-001</leafValues></_>
        <_>
          <internalNodes>
            0 -1 33 -1052673 -429464593 1957690542 -499722258 1987671639
            -13428297 -140515516 -789057546</internalNodes>
          <leafValues>
            -5.1487731933593750e-001 2.4192431569099426e-001</leafValues></_></weakClassifiers></_>
    <!-- stage 6 -->
    <_>
      <maxWeakCount>15</maxWeakCount>
      <stageThreshold>-1.9674465656280518e+000</stageThreshold>
      <weakClassifiers>
        <_>
          <internalNodes>
            0 -1 253 1946117119 -6309957 968227327 -2117 1660895743
            -99585 -67155201 -33793</internalNodes>
          <leafValues>
            -5.8646941184997559e-001 4.9838379025459290e-001</leafValues></_>
        <_>
          <internalNodes>
            0 -1 56 1431699440 -9044054 -275390467 -3149059 1363541493
            -1572929 -2097153 -4097</internalNodes>
          <leafValues>
            -5.5690264701843262e-001 3.6445495486259460e-001</leafValues></_>
        <_>
          <internalNodes>
            0 -1 73 -170000417 -2097185 1472503500 -3372340 -2228289
            -34291713 -3552308 -20075892</internalNodes>
          <leafValues>
            -3.7844142317771912e-001 4.4351643323898315e-001</leafValues></_>
        <_>
          <internalNodes>
            0 -1 247 261504789 -36672164 -2320385 -10698787 -114691
            -205059 -1344421892 -1080555360</internalNodes>
          <leafValues>
            -3.4705150127410889e-001 4.4859719276428223e-001</leafValues></_>
        <_>
          <internalNodes>
            0 -1 229 -336744669 -1430258254 -1083199668 -486541330
            -100585 -1644167170 -269027466 -537927682</internalNodes>
          <leafValues>
            -3.6657679080963135e-001 4.0651962161064148e-001</leafValues></_>
        <_>
          <internalNodes>
            0 -1 211 144969588 521944958 2108981247 -1074388098
            -1073926148 -3393092 -1342685507 -1409794512</internalNodes>
          <leafValues>
            -4.4408196210861206e-001 2.7715983986854553e-001</leafValues></_>
        <_>
          <internalNodes>
            0 -1 361 -536899073 -278986801 1467783498 1649213086
            -23074235 -84166094 -11803900 -92356832</internalNodes>
          <leafValues>
            -4.1098037362098694e-001 3.3916035294532776e-001</leafValues></_>
        <_>
          <internalNodes>
            0 -1 123 2103432097 20444731 -369103185 -1647083523
            1465776093 -1979777096 1610478479 -1116078345</internalNodes>
          <leafValues>
            -3.3786979317665100e-001 3.7515285611152649e-001</leafValues></_>
        <_>
          <internalNodes>
            0 -1 26 -2113 1823354367 -126615945 -363923457 -540022465
            -1115956108 -889459066 -25760414</internalNodes>
          <leafValues>
            -3.6292383074760437e-001 3.7096193432807922e-001</leafValues></_>
        <_>
          <internalNodes>
            0 -1 309 201313373 913829295 -501624325 1977614331 402589198
            1073175807 700254985 787172143</internalNodes>
          <leafValues>
            -5.7042133808135986e-001 2.4576114118099213e-001</leafValues></_>
        <_>
          <internalNodes>
            0 -1 85 -453320965 -687946273 -73978025 -281546985
            1213482637 -860338722 -28294646 1332698655</internalNodes>
          <leafValues>
            -3.9644119143486023e-001 3.0337902903556824e-001</leafValues></_>
        <_>
          <internalNodes>
            0 -1 317 -1079103727 2046713839 2034175711 -555812993
            -1929560715 -1077086982 2138838325 -654830256</internalNodes>
          <leafValues>
            -4.4048398733139038e-001 2.8265747427940369e-001</leafValues></_>
        <_>
          <internalNodes>
            0 -1 376 -536872009 -308568904 -67652271 1927741332
            -415515041 -1381584930 1440209876 -555745312</internalNodes>
          <leafValues>
            -2.8980898857116699e-001 4.2297616600990295e-001</leafValues></_>
        <_>
          <internalNodes>
            0 -1 145 -864253776 1585191414 -908931388 536782599
            2020613620 -84651131 193256152 1282365207</internalNodes>
          <leafValues>
            -4.5899480581283569e-001 2.6034799218177795e-001</leafValues></_>
        <_>
          <internalNodes>
            0 -1 269 1550084348 913583125 -313329425 1035200827
            -1223294311 939533612 1332546043 687965963</internalNodes>
          <leafValues>
            -3.9337310194969177e-001 2.9879656434059143e-001</leafValues></_></weakClassifiers></_>
    <!-- stage 7 -->
    <_>
      <maxWeakCount>16</maxWeakCount>
      <stageThreshold>-1.7571643590927124e+000</stageThreshold>
      <weakClassifiers>
        <_>
          <internalNodes>
            0 -1 55 -69358913 -36315171 1071229887 -22337 -109461569
            -3620901 -2250049 -2118737</internalNodes>
          <leafValues>
            -5.4631167650222778e-001 4.1875448822975159e-001</leafValues></_>
        <_>
          <internalNodes>
            0 -1 200 -2 -27985478 -21172620 -864747854 -907149643
            -356779366 -867324624 -21618</internalNodes>
          <leafValues>
            -4.5331814885139465e-001 3.6370402574539185e-001</leafValues></_>
        <_>
          <internalNodes>
            0 -1 323 178407647 1073418237 603675103 1029585151 748621550
            -1074041155 -1141990689 -1078248529</internalNodes>
          <leafValues>
            -4.3870973587036133e-001 3.5188302397727966e-001</leafValues></_>
        <_>
          <internalNodes>
            0 -1 99 -1359478913 -288423938 1608376191 -285543714
            -1344274689 -1075844129 -335545356 -285279264</internalNodes>
          <leafValues>
            -3.7582215666770935e-001 3.7392398715019226e-001</leafValues></_>
        <_>
          <internalNodes>
            0 -1 130 -198691 831689112 1201339775 832250640 -272643585
            -1075855909 -288797302 572670474</internalNodes>
          <leafValues>
            -4.7163435816764832e-001 2.9985538125038147e-001</leafValues></_>
        <_>
          <internalNodes>
            0 -1 354 -1056809 -1342212145 2146844538 583727212
            -216008384 -320933253 -2883772 -2097162</internalNodes>
          <leafValues>
            -4.9359145760536194e-001 2.4203236401081085e-001</leafValues></_>
        <_>
          <internalNodes>
            0 -1 297 202382676 -99365 1434375551 -2672769 -1678820931
            -8197 738004991 -1090642436</internalNodes>
          <leafValues>
            -4.7083950042724609e-001 2.8785908222198486e-001</leafValues></_>
        <_>
          <internalNodes>
            0 -1 68 -100663653 -1604949 -164432134 -1068310882
            1233082124 -27633546 1287046144 -227346722</internalNodes>
          <leafValues>
            -4.0599483251571655e-001 3.5033923387527466e-001</leafValues></_>
        <_>
          <internalNodes>
            0 -1 258 -419452369 -1567623457 -387995050 -396493997
            1399813191 -1102273 -242254268 -8913859</internalNodes>
          <leafValues>
            -4.3461689352989197e-001 2.9167139530181885e-001</leafValues></_>
        <_>
          <internalNodes>
            0 -1 87 -393015435 -1493549596 -142742025 -321077485
            -8393731 -1091349 -564789803 -17799820</internalNodes>
          <leafValues>
            -4.3510708212852478e-001 2.7668499946594238e-001</leafValues></_>
        <_>
          <internalNodes>
            0 -1 60 -1572865 -134977545 1866462943 -4237857 -673182529
            -537725259 -1091216545 -12356537</internalNodes>
          <leafValues>
            -2.1091070771217346e-001 5.8296906948089600e-001</leafValues></_>
        <_>
          <internalNodes>
            0 -1 334 -36700237 184614784 -1077969040 -1258228176
            -29360389 -1969242653 -145910592 -1444684393</internalNodes>
          <leafValues>
            -3.0476948618888855e-001 3.8452905416488647e-001</leafValues></_>
        <_>
          <internalNodes>
            0 -1 79 1589395636 2043468786 -711500835 -37928991
            1668904955 -287314713 932806651 166348183</internalNodes>
          <leafValues>
            -3.9404955506324768e-001 3.1317782402038574e-001</leafValues></_>
        <_>
          <internalNodes>
            0 -1 62 -16778258 -58920732 -96212153 -428350837 -218774268
            -998231520 -154153721 1313330187</internalNodes>
          <leafValues>
            -4.8751515150070190e-001 2.3425360023975372e-001</leafValues></_>
        <_>
          <internalNodes>
            0 -1 220 246417716 993818621 534339323 1065095549 -726237195
            -1073931598 2133204731 687736368</internalNodes>
          <leafValues>
            -5.7404828071594238e-001 1.8644998967647552e-001</leafValues></_>
        <_>
          <internalNodes>
            0 -1 290 1659298030 2130619359 1341881343 -1615718450
            1196445695 -14798978 -815437569 -1082309021</internalNodes>
          <leafValues>
            -3.2166084647178650e-001 3.5833248496055603e-001</leafValues></_></weakClassifiers></_>
    <!-- stage 8 -->
    <_>
      <maxWeakCount>18</maxWeakCount>
      <stageThreshold>-1.9619212150573730e+000</stageThreshold>
      <weakClassifiers>
        <_>
          <internalNodes>
            0 -1 90 -220202254 -13091 549789939 -35675425 -1310725
            -3235938 -1824802117 -2098209</internalNodes>
          <leafValues>
            -5.6046319007873535e-001 3.5353535413742065e-001</leafValues></_>
        <_>
          <internalNodes>
            0 -1 122 991114547 -6320366 1017074515 -272080 985635773
            -5268295 -1148194885 -16897</internalNodes>
          <leafValues>
            -4.4945198297500610e-001 3.4049776196479797e-001</leafValues></_>
        <_>
          <internalNodes>
            0 -1 196 -27330465 -67115145 -302096385 -1073744537
            -841226245 -2162689 -1359220993 -1475157421</internalNodes>
          <leafValues>
            -3.4342047572135925e-001 4.0508505702018738e-001</leafValues></_>
        <_>
          <internalNodes>
            0 -1 240 -799670821 -707003393 1300740607 1575878399
            -1069223495 -102959137 299744959 -40894465</internalNodes>
          <leafValues>
            -2.7708020806312561e-001 4.5937478542327881e-001</leafValues></_>
        <_>
          <internalNodes>
            0 -1 284 -983568640 151044608 -644067023 17418769
            -2129660544 -1895302103 1239146769 185597731</internalNodes>
          <leafValues>
            -4.7948586940765381e-001 2.7709269523620605e-001</leafValues></_>
        <_>
          <internalNodes>
            0 -1 30 -536872257 -27599121 -207890210 -490014266
            -686830513 -13927245 -417352844 -18874370</internalNodes>
          <leafValues>
            -4.3103432655334473e-001 2.3543836176395416e-001</leafValues></_>
        <_>
          <internalNodes>
            0 -1 350 -558197284 -111907 -38322691 1576425649 -1126915
            -1081090993 -90649603 682109965</internalNodes>
          <leafValues>
            -3.9845407009124756e-001 2.8088438510894775e-001</leafValues></_>
        <_>
          <internalNodes>
            0 -1 291 -189728070 1345340146 712690928 1410357627
            1079301320 -705404828 -975766422 -9768485</internalNodes>
          <leafValues>
            -4.7015246748924255e-001 2.1583162248134613e-001</leafValues></_>
        <_>
          <internalNodes>
            0 -1 238 -285495514 -994313237 -1713660994 -855851282
            -159919856 -294941770 -72977648 -17402108</internalNodes>
          <leafValues>
            -4.4326528906822205e-001 2.4664269387722015e-001</leafValues></_>
        <_>
          <internalNodes>
            0 -1 368 -1880360137 -1897933850 -1758605551 -926240001
            -1577062559 -272020 2000150884 -354355388</internalNodes>
          <leafValues>
            -4.7102588415145874e-001 2.1095471084117889e-001</leafValues></_>
        <_>
          <internalNodes>
            0 -1 273 203699729 -1216817169 -542644225 1031582717
            -1153163844 -69411880 1073421053 -1360264012</internalNodes>
          <leafValues>
            -4.3069690465927124e-001 2.4789144098758698e-001</leafValues></_>
        <_>
          <internalNodes>
            0 -1 298 -554301196 -11678945 1364450303 2141150495
            -1059708262 -7722021 183125708 1275397201</internalNodes>
          <leafValues>
            -5.1910328865051270e-001 2.1662272512912750e-001</leafValues></_>
        <_>
          <internalNodes>
            0 -1 151 -1365015005 -1423261904 1474025329 -135201550
            -2038715913 -1422302802 634336833 -707292687</internalNodes>
          <leafValues>
            -3.6985510587692261e-001 2.8033438324928284e-001</leafValues></_>
        <_>
          <internalNodes>
            0 -1 176 2113533950 -239586918 1809269693 1035089931
            403701997 -1880094440 1700031740 526600475</internalNodes>
          <leafValues>
            -3.6118182539939880e-001 3.0009371042251587e-001</leafValues></_>
        <_>
          <internalNodes>
            0 -1 2 -281346349 -366298464 -4784397 600188436 -159813637
            -605290567 -1104385 -805345689</internalNodes>
          <leafValues>
            -2.7348974347114563e-001 4.0767538547515869e-001</leafValues></_>
        <_>
          <internalNodes>
            0 -1 293 -898676621 1279467997 1711956619 35842526
            -344431355 -602519476 -665259410 -402400545</internalNodes>
          <leafValues>
            -3.6039698123931885e-001 3.2157966494560242e-001</leafValues></_>
        <_>
          <internalNodes>
            0 -1 35 -965556286 -219223413 -247086245 -337124653
            1146408900 -1062161425 -814272701 1291010883</internalNodes>
          <leafValues>
            -4.5197206735610962e-001 2.5158464908599854e-001</leafValues></_>
        <_>
          <internalNodes>
            0 -1 353 -429962217 83842927 2082102999 549747453 -541341676
            -280270319 919531588 -27198126</internalNodes>
          <leafValues>
            -4.6231225132942200e-001 2.2723628580570221e-001</leafValues></_></weakClassifiers></_>
    <!-- stage 9 -->
    <_>
      <maxWeakCount>20</maxWeakCount>
      <stageThreshold>-1.9069631099700928e+000</stageThreshold>
      <weakClassifiers>
        <_>
          <internalNodes>
            0 -1 94 -1 -705300016 1442840575 -706873347 -2097153 -3 -1
            -570425345</internalNodes>
          <leafValues>
            -4.1125768423080444e-001 5.7796978950500488e-001</leafValues></_>
        <_>
          <internalNodes>
            0 -1 172 -134220893 29619123 -134220013 1471936503
            1979710383 49249779 -234884625 -134217733</internalNodes>
          <leafValues>
            -3.7391096353530884e-001 4.2119833827018738e-001</leafValues></_>
        <_>
          <internalNodes>
            0 -1 286 -100671521 -524357 -277092489 -137 -18235905 -2049
            -973310017 -270576299</internalNodes>
          <leafValues>
            -2.8573194146156311e-001 4.7288015484809875e-001</leafValues></_>
        <_>
          <internalNodes>
            0 -1 69 -16777505 -558895485 -152902914 -231281029
            1411696206 -597881018 1548010718 -126879777</internalNodes>
          <leafValues>
            -3.3338621258735657e-001 3.6020293831825256e-001</leafValues></_>
        <_>
          <internalNodes>
            0 -1 230 -2083 434695426 1877471165 -1511526525 -141049859
            -1324092015 -268447797 773039</internalNodes>
          <leafValues>
            -3.3414644002914429e-001 3.5766494274139404e-001</leafValues></_>
        <_>
          <internalNodes>
            0 -1 328 -93 1798306562 -68174030 -43122717 -268435513
            1340600263 -176164400 -201327117</internalNodes>
          <leafValues>
            -2.8435721993446350e-001 3.6078411340713501e-001</leafValues></_>
        <_>
          <internalNodes>
            0 -1 257 1659888367 1996548714 870436845 -3021347 1733165695
            -5021639 1732628415 -67633537</internalNodes>
          <leafValues>
            -3.5120540857315063e-001 2.8651672601699829e-001</leafValues></_>
        <_>
          <internalNodes>
            0 -1 20 -359993481 -162600705 -1465992485 1109588394
            1715621716 -1136674179 -1444507411 -18678288</internalNodes>
          <leafValues>
            -3.8391122221946716e-001 2.6849919557571411e-001</leafValues></_>
        <_>
          <internalNodes>
            0 -1 184 1616375824 807254105 1334400701 264235727
            -245370063 -109991236 724269631 723464831</internalNodes>
          <leafValues>
            -3.9311000704765320e-001 2.5266617536544800e-001</leafValues></_>
        <_>
          <internalNodes>
            0 -1 64 -15736146 -1318362 -659797470 811770594 427181132
            2004317011 1382442054 -152616106</internalNodes>
          <leafValues>
            -4.7556558251380920e-001 1.9431224465370178e-001</leafValues></_>
        <_>
          <internalNodes>
            0 -1 182 -1060047916 -453744641 936289215 -807428385
            -250299920 -1516095 -13648359 -1349713877</internalNodes>
          <leafValues>
            -3.2194352149963379e-001 3.0858257412910461e-001</leafValues></_>
        <_>
          <internalNodes>
            0 -1 349 -856966345 -1080565793 -784730127 516420535
            -1075840252 -1084237549 -299065516 -1937117409</internalNodes>
          <leafValues>
            -3.0842146277427673e-001 3.2859039306640625e-001</leafValues></_>
        <_>
          <internalNodes>
            0 -1 119 -554173710 -168845031 -2138021357 1426008671
            -20004929 -1156921184 -1430786117 -1545749682</internalNodes>
          <leafValues>
            -3.3574959635734558e-001 3.0566412210464478e-001</leafValues></_>
        <_>
          <internalNodes>
            0 -1 201 -475011277 -1968443662 -276866215 -838992008
            -1490093453 215875567 912725445 -1040189537</internalNodes>
          <leafValues>
            -3.0918881297111511e-001 3.1985372304916382e-001</leafValues></_>
        <_>
          <internalNodes>
            0 -1 194 603981876 -1085255172 2140306391 2071466428
            -1241749574 -67204627 -1180008775 -1422392215</internalNodes>
          <leafValues>
            -4.0724760293960571e-001 2.6265436410903931e-001</leafValues></_>
        <_>
          <internalNodes>
            0 -1 120 509450160 364387668 -162180673 425044747
            -1983008324 -1081187379 -986919127 11531947</internalNodes>
          <leafValues>
            -4.0121102333068848e-001 2.3769448697566986e-001</leafValues></_>
        <_>
          <internalNodes>
            0 -1 3 -268697601 -1360069656 -1927571277 -1459846468
            -1016372233 1576791487 1102297075 -13670841</internalNodes>
          <leafValues>
            -3.2771596312522888e-001 3.0675533413887024e-001</leafValues></_>
        <_>
          <internalNodes>
            0 -1 316 -575670317 -1791899647 1941823473 -1123680400
            -1209011541 -1154507387 1442551497 176412151</internalNodes>
          <leafValues>
            -2.8807416558265686e-001 3.5482212901115417e-001</leafValues></_>
        <_>
          <internalNodes>
            0 -1 372 -671093065 -294662280 1039921523 1791515678
            -963905835 -595162538 2054539012 -1024015116</internalNodes>
          <leafValues>
            -3.7903478741645813e-001 2.7653029561042786e-001</leafValues></_>
        <_>
          <internalNodes>
            0 -1 177 1641086288 497428725 -543662252 533401036
            -2008002052 1025136773 754982524 247672095</internalNodes>
          <leafValues>
            -4.0575921535491943e-001 2.4454617500305176e-001</leafValues></_></weakClassifiers></_>
    <!-- stage 10 -->
    <_>
      <maxWeakCount>20</maxWeakCount>
      <stageThreshold>-1.9465563297271729e+000</stageThreshold>
      <weakClassifiers>
        <_>
          <internalNodes>
            0 -1 97 -34081793 -781158575 -573441 -168427529 -8912897
            -2064385 -8912897 -136970245</internalNodes>
          <leafValues>
            -4.1332843899726868e-001 4.9283048510551453e-001</leafValues></_>
        <_>
          <internalNodes>
            0 -1 52 -2314305 -539105443 -11785541 -81941878 -54018753
            -35850249 -33968598 -4215893</internalNodes>
          <leafValues>
            -4.1746744513511658e-001 3.5016044974327087e-001</leafValues></_>
        <_>
          <internalNodes>
            0 -1 275 1352388271 1409019902 500428283 1574951935 8063118
            467654911 861867215 2080327663</internalNodes>
          <leafValues>
            -4.6189922094345093e-001 2.4946098029613495e-001</leafValues></_>
        <_>
          <internalNodes>
            0 -1 36 -16779521 -77607306 -89207586 1889725162 1568101956
            -16256683 -539034292 -28117902</internalNodes>
          <leafValues>
            -3.6759164929389954e-001 3.0121561884880066e-001</leafValues></_>
        <_>
          <internalNodes>
            0 -1 326 -394277153 -159446433 -893452674 574520959
            -587217061 -278954145 -319492098 -265093249</internalNodes>
          <leafValues>
            -2.7901721000671387e-001 3.8414898514747620e-001</leafValues></_>
        <_>
          <internalNodes>
            0 -1 232 273172 2010446716 966602751 -1086540802 779468796
            -10709524 -1142341956 -1095237572</internalNodes>
          <leafValues>
            -3.8544571399688721e-001 2.5594142079353333e-001</leafValues></_>
        <_>
          <internalNodes>
            0 -1 121 -662377929 -656101496 -732629195 -991112113
            -1212696729 -29777229 -181011597 -178922457</internalNodes>
          <leafValues>
            -3.9217752218246460e-001 2.6392799615859985e-001</leafValues></_>
        <_>
          <internalNodes>
            0 -1 110 -959447041 -1431374348 -540813315 -355532966
            -1611146345 -273698870 1993306609 -52501264</internalNodes>
          <leafValues>
            -3.6100614070892334e-001 2.8233698010444641e-001</leafValues></_>
        <_>
          <internalNodes>
            0 -1 256 -269504753 -352596425 544964506 -1023410226
            -421697721 -2097440742 -721684364 -170394522</internalNodes>
          <leafValues>
            -3.8361829519271851e-001 2.5373193621635437e-001</leafValues></_>
        <_>
          <internalNodes>
            0 -1 78 -471847724 -177704775 -1247504899 -678418992
            474299568 -6424259 2057907517 947982353</internalNodes>
          <leafValues>
            -4.3227946758270264e-001 2.1871340274810791e-001</leafValues></_>
        <_>
          <internalNodes>
            0 -1 103 -856897895 753794943 -579076097 -1974025232
            -71073799 -93424 -1144267019 -1461657179</internalNodes>
          <leafValues>
            -3.9784204959869385e-001 2.4593651294708252e-001</leafValues></_>
        <_>
          <internalNodes>
            0 -1 373 -13631945 -2121804406 -799415336 -1574186525
            1799569280 -1974472550 1180107264 -892600880</internalNodes>
          <leafValues>
            -3.5485050082206726e-001 2.6856368780136108e-001</leafValues></_>
        <_>
          <internalNodes>
            0 -1 210 1678025780 1022902616 1058154391 -1611919322
            -2091931203 -4600291 267856312 730791979</internalNodes>
          <leafValues>
            -3.7445569038391113e-001 2.6984345912933350e-001</leafValues></_>
        <_>
          <internalNodes>
            0 -1 93 -787372976 1346435328 -668771247 -439488588
            1493497872 494960701 429390329 -576718611</internalNodes>
          <leafValues>
            -5.4759055376052856e-001 1.7049141228199005e-001</leafValues></_>
        <_>
          <internalNodes>
            0 -1 42 -465125142 -488717239 763450179 1735363450
            1162104580 -564281860 1197992783 1333739871</internalNodes>
          <leafValues>
            -4.6326607465744019e-001 2.1000131964683533e-001</leafValues></_>
        <_>
          <internalNodes>
            0 -1 305 205521397 496282012 -1077175585 -581807186
            -1641530627 -1151880759 -1144084227 -1079306273</internalNodes>
          <leafValues>
            -3.3275020122528076e-001 2.7954709529876709e-001</leafValues></_>
        <_>
          <internalNodes>
            0 -1 262 -490738961 418357724 -395188242 334660766
            1110386223 1698325104 -1835009 -178820117</internalNodes>
          <leafValues>
            -3.4088632464408875e-001 2.8217330574989319e-001</leafValues></_>
        <_>
          <internalNodes>
            0 -1 378 -336602189 1202643104 -247202320 -854534054
            1536339600 1264194226 159110321 -863054352</internalNodes>
          <leafValues>
            -3.3631342649459839e-001 2.8264451026916504e-001</leafValues></_>
        <_>
          <internalNodes>
            0 -1 337 37228149 446576503 1836294559 -1182860078
            1825332972 -1115979250 -336799826 -1344128576</internalNodes>
          <leafValues>
            -3.7434792518615723e-001 2.4565078318119049e-001</leafValues></_>
        <_>
          <internalNodes>
            0 -1 189 -335814238 -2035749749 175005313 -279856152
            255962075 11724617 487057203 1367077871</internalNodes>
          <leafValues>
            -3.9572006464004517e-001 2.3193646967411041e-001</leafValues></_></weakClassifiers></_>
    <!-- stage 11 -->
    <_>
      <maxWeakCount>20</maxWeakCount>
      <stageThreshold>-1.6895700693130493e+000</stageThreshold>
      <weakClassifiers>
        <_>
          <internalNodes>
            0 -1 198 -2643025 -6673 -673339985 -67116053 -69211217
            -71570453 -33837266 -353390842</internalNodes>
          <leafValues>
            -4.7837570309638977e-001 3.3950528502464294e-001</leafValues></_>
        <_>
          <internalNodes>
            0 -1 6 -11141131 -789515052 -205862177 -793931524 -12190889
            -4346049 -875299985 -1</internalNodes>
          <leafValues>
            -3.7613949179649353e-001 3.3357939124107361e-001</leafValues></_>
        <_>
          <internalNodes>
            0 -1 289 -78189569 -67492282 -406982913 -3602462 -2147438593
            -76518650 1932545247 -77117626</internalNodes>
          <leafValues>
            -2.6322844624519348e-001 4.3565109372138977e-001</leafValues></_>
        <_>
          <internalNodes>
            0 -1 61 -262145 -823232530 -291509544 -286335778 1073736671
            -84165122 1973137632 -1026</internalNodes>
          <leafValues>
            -3.4819346666336060e-001 3.0572354793548584e-001</leafValues></_>
        <_>
          <internalNodes>
            0 -1 157 -681577597 27525003 1161065506 1971716091
            -678439185 100600235 1438492303 -168624405</internalNodes>
          <leafValues>
            -3.2364830374717712e-001 3.2533088326454163e-001</leafValues></_>
        <_>
          <internalNodes>
            0 -1 304 -100731056 1343231000 291601212 872419388
            -862068226 -659496780 1003195386 135001355</internalNodes>
          <leafValues>
            -4.6458819508552551e-001 1.8362037837505341e-001</leafValues></_>
        <_>
          <internalNodes>
            0 -1 299 -1498456525 -34942219 2145875959 2145055444
            25564469 -331598 1563259221 -538094235</internalNodes>
          <leafValues>
            -3.6226284503936768e-001 2.7372524142265320e-001</leafValues></_>
        <_>
          <internalNodes>
            0 -1 327 -605029949 520355594 -1744863376 422706960
            -20990037 -1894779025 -1660963872 -1162348625</internalNodes>
          <leafValues>
            -2.8085270524024963e-001 3.4136927127838135e-001</leafValues></_>
        <_>
          <internalNodes>
            0 -1 45 -555749705 -1846738 2029700278 -232456578 1291834892
            1816430085 1422947392 -730335489</internalNodes>
          <leafValues>
            -3.8275682926177979e-001 2.3573312163352966e-001</leafValues></_>
        <_>
          <internalNodes>
            0 -1 217 1958752116 -604455444 367819775 536681973
            -1614235140 -1073966152 1054694335 802957314</internalNodes>
          <leafValues>
            -3.9350590109825134e-001 2.4817085266113281e-001</leafValues></_>
        <_>
          <internalNodes>
            0 -1 333 170393816 974016218 943996927 311964917 1894391546
            -9754421 -1146468675 -1163258130</internalNodes>
          <leafValues>
            -4.6933242678642273e-001 1.9840486347675323e-001</leafValues></_>
        <_>
          <internalNodes>
            0 -1 54 -637493424 -70609664 -771501057 423366016
            -1115619408 -290223651 1334072629 243469829</internalNodes>
          <leafValues>
            -4.3881559371948242e-001 1.9375284016132355e-001</leafValues></_>
        <_>
          <internalNodes>
            0 -1 28 -595591321 -424714818 -1601474445 1145625323
            1878472470 -280292045 -625547182 -865140922</internalNodes>
          <leafValues>
            -3.5782960057258606e-001 2.5273588299751282e-001</leafValues></_>
        <_>
          <internalNodes>
            0 -1 348 -440405995 2112970551 -1086333313 -1679295489
            -1103169279 -10568325 -77984456 -1430636549</internalNodes>
          <leafValues>
            -2.6772615313529968e-001 3.3611473441123962e-001</leafValues></_>
        <_>
          <internalNodes>
            0 -1 251 206053136 -1141622864 -1075882307 -1073911948
            -1176183875 -1145423732 399059928 -1192742048</internalNodes>
          <leafValues>
            -4.2858919501304626e-001 2.0175440609455109e-001</leafValues></_>
        <_>
          <internalNodes>
            0 -1 5 2068312158 1128243238 -181448645 697245708 1400369143
            2134896799 2135941099 460444027</internalNodes>
          <leafValues>
            -3.5448679327964783e-001 2.6450195908546448e-001</leafValues></_>
        <_>
          <internalNodes>
            0 -1 365 -76547341 1810104096 -105513678 1693972356
            -546443294 -873470138 -159389724 -673976847</internalNodes>
          <leafValues>
            -2.6183131337165833e-001 3.5586118698120117e-001</leafValues></_>
        <_>
          <internalNodes>
            0 -1 139 2010709914 -86218010 -664018981 -318778114
            -145361936 -1769971540 -7705790 168781166</internalNodes>
          <leafValues>
            -3.7471848726272583e-001 2.3868432641029358e-001</leafValues></_>
        <_>
          <internalNodes>
            0 -1 138 541371431 -1626582704 -1073723555 1896347267
            1782704622 630200456 2027025144 -25060618</internalNodes>
          <leafValues>
            -3.2238343358039856e-001 2.6923140883445740e-001</leafValues></_>
        <_>
          <internalNodes>
            0 -1 49 -1595214092 -1899754784 1439856119 -2063031811
            -1960584235 -320206020 -828214787 756223799</internalNodes>
          <leafValues>
            -3.9553642272949219e-001 2.3589931428432465e-001</leafValues></_></weakClassifiers></_>
    <!-- stage 12 -->
    <_>
      <maxWeakCount>21</maxWeakCount>
      <stageThreshold>-2.0054945945739746e+000</stageThreshold>
      <weakClassifiers>
        <_>
          <internalNodes>
            0 -1 277 -220206337 -220216581 -228728065 2011166431
            2011120767 1937468527 -154273029 -135266305</internalNodes>
          <leafValues>
            -4.5304042100906372e-001 3.4499010443687439e-001</leafValues></_>
        <_>
          <internalNodes>
            0 -1 163 -201984001 -67111425 -268468449 -4514797 1818591229
            955262389 -36929 2138270491</internalNodes>
          <leafValues>
            -3.1713327765464783e-001 4.1048103570938110e-001</leafValues></_>
        <_>
          <internalNodes>
            0 -1 133 -35652199 -706880231 -2098381 488504723 -117724024
            -1392911224 -1358970965 -2001731665</internalNodes>
          <leafValues>
            -2.4925473332405090e-001 4.5332098007202148e-001</leafValues></_>
        <_>
          <internalNodes>
            0 -1 345 -161 -819331 -67437198 846386802 -67375274 -8742425
            -541090348 -262158</internalNodes>
          <leafValues>
            -3.3914768695831299e-001 2.8569215536117554e-001</leafValues></_>
        <_>
          <internalNodes>
            0 -1 367 -1364534220 -1702177079 -707902897 -1716854265
            -1183849591 -91319625 -72946705 -1051729</internalNodes>
          <leafValues>
            -4.2583000659942627e-001 2.3432493209838867e-001</leafValues></_>
        <_>
          <internalNodes>
            0 -1 0 -1364213825 -1372655710 771447801 -1496539912 -19009
            -807534677 -1016630317 -541066763</internalNodes>
          <leafValues>
            -2.7348166704177856e-001 3.3348575234413147e-001</leafValues></_>
        <_>
          <internalNodes>
            0 -1 265 -661411844 1495037941 488278448 230645439 -54685292
            943268196 -597308696 151382127</internalNodes>
          <leafValues>
            -3.6447545886039734e-001 2.5606223940849304e-001</leafValues></_>
        <_>
          <internalNodes>
            0 -1 100 -288358405 -125114118 -1743039489 -630263278
            175070119 -347161829 1220698853 -559222608</internalNodes>
          <leafValues>
            -3.4483781456947327e-001 2.8291106224060059e-001</leafValues></_>
        <_>
          <internalNodes>
            0 -1 282 -657132203 -1747953120 -1651179651 -1654896660
            -1913811012 -4817432 -348553221 790301951</internalNodes>
          <leafValues>
            -3.2249307632446289e-001 2.8247359395027161e-001</leafValues></_>
        <_>
          <internalNodes>
            0 -1 149 -823491113 339902495 -1233020513 38809037
            -1112015627 -286522543 -22488584 -1468465204</internalNodes>
          <leafValues>
            -3.8884490728378296e-001 2.4328207969665527e-001</leafValues></_>
        <_>
          <internalNodes>
            0 -1 206 1416019536 -390189420 -1352679937 -1888583441
            -136744463 -1082076435 592914739 267331643</internalNodes>
          <leafValues>
            -4.1533231735229492e-001 1.9821391999721527e-001</leafValues></_>
        <_>
          <internalNodes>
            0 -1 364 -71303285 1269757418 -719759022 -218309184
            -1481640501 260262724 1206343632 -733480588</internalNodes>
          <leafValues>
            -3.0861997604370117e-001 3.0073618888854980e-001</leafValues></_>
        <_>
          <internalNodes>
            0 -1 180 -1075054669 -2131837973 -1476436207 -268583967
            -1883333194 210698231 1440736693 -1040214543</internalNodes>
          <leafValues>
            -3.0561885237693787e-001 3.0878740549087524e-001</leafValues></_>
        <_>
          <internalNodes>
            0 -1 147 1617162866 1182266084 667922807 193925855 459144016
            -671600024 1866691355 189735531</internalNodes>
          <leafValues>
            -3.8527137041091919e-001 2.3580513894557953e-001</leafValues></_>
        <_>
          <internalNodes>
            0 -1 113 -362288534 -138500344 -24848798 -230009606
            1313817423 1769097571 1600027887 -12094601</internalNodes>
          <leafValues>
            -3.5025712847709656e-001 2.3885227739810944e-001</leafValues></_>
        <_>
          <internalNodes>
            0 -1 212 -279974362 82203615 1776025506 586864626 2001305383
            -1650735053 1938682212 -253233212</internalNodes>
          <leafValues>
            -5.6228458881378174e-001 1.6673918068408966e-001</leafValues></_>
        <_>
          <internalNodes>
            0 -1 296 504370480 -1074233998 -1848014123 -2305519
            1026724028 -1344427327 1053701884 -1917058992</internalNodes>
          <leafValues>
            -4.5589491724967957e-001 1.7091444134712219e-001</leafValues></_>
        <_>
          <internalNodes>
            0 -1 17 -1069265087 -929778709 -670762543 -992610130
            -1148405168 -1280628550 -1225393659 -33686883</internalNodes>
          <leafValues>
            -4.3855351209640503e-001 1.9733205437660217e-001</leafValues></_>
        <_>
          <internalNodes>
            0 -1 140 -1499210093 -494733422 1834604531 -50404716
            2006965206 -1910776333 894849141 -813707068</internalNodes>
          <leafValues>
            -3.3991816639900208e-001 2.4726153910160065e-001</leafValues></_>
        <_>
          <internalNodes>
            0 -1 92 -11554929 -602552914 294421004 363637312 -916919873
            -914440063 -82327160 -171583422</internalNodes>
          <leafValues>
            -4.1099229454994202e-001 2.2150780260562897e-001</leafValues></_>
        <_>
          <internalNodes>
            0 -1 356 -73406549 235659243 -1265270272 15921882 1509656068
            210743955 1969468416 1145044991</internalNodes>
          <leafValues>
            -5.4665303230285645e-001 1.6240765154361725e-001</leafValues></_></weakClassifiers></_>
    <!-- stage 13 -->
    <_>
      <maxWeakCount>23</maxWeakCount>
      <stageThreshold>-1.7143539190292358e+000</stageThreshold>
      <weakClassifiers>
        <_>
          <internalNodes>
            0 -1 254 -75497473 -2112293 -67371017 -137367297 -196814082
            -9043969 -178978817 -8913921</internalNodes>
          <leafValues>
            -3.8525703549385071e-001 4.5242404937744141e-001</leafValues></_>
        <_>
          <internalNodes>
            0 -1 58 1002438431 331085587 -9966627 -1275069517 -805347393
            -1143021665 -18170209 -1141113221</internalNodes>
          <leafValues>
            -3.2096016407012939e-001 3.7213113903999329e-001</leafValues></_>
        <_>
          <internalNodes>
            0 -1 39 -67120385 -136376789 -161710341 1883433951
            1467958856 -398041020 -93782032 -261031970</internalNodes>
          <leafValues>
            -2.9753822088241577e-001 3.2736623287200928e-001</leafValues></_>
        <_>
          <internalNodes>
            0 -1 288 -1010844045 -6917254 -572023363 -593462 109934591
            -1381238314 1427592437 -536885772</internalNodes>
          <leafValues>
            -3.1315070390701294e-001 2.7977758646011353e-001</leafValues></_>
        <_>
          <internalNodes>
            0 -1 112 -564410689 1994055515 -1153516001 523969775
            215647438 191843583 -623980913 1594840591</internalNodes>
          <leafValues>
            -2.7303603291511536e-001 3.2224196195602417e-001</leafValues></_>
        <_>
          <internalNodes>
            0 -1 216 -274747477 -2005077837 -1387390206 -823213074
            -1149267145 148884165 -638062233 -1044512785</internalNodes>
          <leafValues>
            -3.4140455722808838e-001 2.6923462748527527e-001</leafValues></_>
        <_>
          <internalNodes>
            0 -1 218 570434932 2146961772 -6523011 -1611126152
            -1126147075 -67491491 -274960450 698356832</internalNodes>
          <leafValues>
            -5.4511868953704834e-001 1.3075065612792969e-001</leafValues></_>
        <_>
          <internalNodes>
            0 -1 371 -3465 -1393561149 -1446063117 -1941972101
            1314642037 -890650929 -764943084 -864032240</internalNodes>
          <leafValues>
            -3.2940962910652161e-001 2.5794082880020142e-001</leafValues></_>
        <_>
          <internalNodes>
            0 -1 308 -2097185 -75532803 -1856126241 1072560607
            -1645246331 -344619 773587657 955643615</internalNodes>
          <leafValues>
            -3.0327010154724121e-001 2.8609606623649597e-001</leafValues></_>
        <_>
          <internalNodes>
            0 -1 165 1414849624 72665636 -1623987651 -807418835 -278767
            -1183763984 -310427789 235663119</internalNodes>
          <leafValues>
            -3.3740514516830444e-001 2.5415456295013428e-001</leafValues></_>
        <_>
          <internalNodes>
            0 -1 108 540488209 -53693187 733999615 2145368026 109583290
            -1078249032 263131389 -604015143</internalNodes>
          <leafValues>
            -3.2631823420524597e-001 2.4735490977764130e-001</leafValues></_>
        <_>
          <internalNodes>
            0 -1 307 -824185728 134667008 -998018016 488478147
            -1414535295 -1937327824 364113952 -1718617165</internalNodes>
          <leafValues>
            -3.9482226967811584e-001 2.2005657851696014e-001</leafValues></_>
        <_>
          <internalNodes>
            0 -1 279 -16783809 1618156991 -1954633749 1790443117
            -311333771 1483896399 -432640433 -9699649</internalNodes>
          <leafValues>
            -2.5576928257942200e-001 3.3284083008766174e-001</leafValues></_>
        <_>
          <internalNodes>
            0 -1 34 -28311841 -134058654 -1031354266 -521476026
            1560935287 -1693257100 1649632870 -232262318</internalNodes>
          <leafValues>
            -4.0629538893699646e-001 2.1036118268966675e-001</leafValues></_>
        <_>
          <internalNodes>
            0 -1 272 673844240 914100809 735884629 -1089370472 950872984
            -1078349828 986528669 706217001</internalNodes>
          <leafValues>
            -4.2804372310638428e-001 1.8412292003631592e-001</leafValues></_>
        <_>
          <internalNodes>
            0 -1 339 1113736272 -746830254 -94934659 745939563
            -1665864248 -18167749 -422642212 -99419145</internalNodes>
          <leafValues>
            -3.5997772216796875e-001 2.3886494338512421e-001</leafValues></_>
        <_>
          <internalNodes>
            0 -1 128 -289414097 1819731359 -585961313 786191495
            -99936205 -550272909 -392352876 -1732911625</internalNodes>
          <leafValues>
            -3.9026820659637451e-001 2.0081934332847595e-001</leafValues></_>
        <_>
          <internalNodes>
            0 -1 57 -1509424 -6157412 -8405121 -34070208 1328295297
            -857178114 223672015 -19986921</internalNodes>
          <leafValues>
            -2.4502258002758026e-001 3.3269768953323364e-001</leafValues></_>
        <_>
          <internalNodes>
            0 -1 150 -486280269 1107358846 392552724 -173039432
            -1288193025 -1882261571 90699091 -997206849</internalNodes>
          <leafValues>
            -2.4314054846763611e-001 3.3676552772521973e-001</leafValues></_>
        <_>
          <internalNodes>
            0 -1 41 -352400689 2063508634 -530911557 1649041603
            -854795051 -918044063 1543855323 -816359813</internalNodes>
          <leafValues>
            -2.6817351579666138e-001 2.9790353775024414e-001</leafValues></_>
        <_>
          <internalNodes>
            0 -1 223 -857870597 -599409281 -286808837 1845198334
            -1072389712 -278986753 609562848 -268575249</internalNodes>
          <leafValues>
            -2.7201178669929504e-001 2.9014137387275696e-001</leafValues></_>
        <_>
          <internalNodes>
            0 -1 320 -35653229 1431426332 -1514111656 1359541152
            -1668286288 749912883 -171640436 -1731199010</internalNodes>
          <leafValues>
            -2.5394248962402344e-001 3.2370385527610779e-001</leafValues></_>
        <_>
          <internalNodes>
            0 -1 83 -1127034956 -457198337 -1186310861 1746651526
            -856892752 -191308481 -310387869 1258245751</internalNodes>
          <leafValues>
            -3.5923829674720764e-001 2.3930360376834869e-001</leafValues></_></weakClassifiers></_>
    <!-- stage 14 -->
    <_>
      <maxWeakCount>26</maxWeakCount>
      <stageThreshold>-1.8013676404953003e+000</stageThreshold>
      <weakClassifiers>
        <_>
          <internalNodes>
            0 -1 125 -707266561 -783261929 -539504385 -170528257
            2021912575 -1078875457 461491663 -708446497</internalNodes>
          <leafValues>
            -4.0336620807647705e-001 3.8325679302215576e-001</leafValues></_>
        <_>
          <internalNodes>
            0 -1 239 1945368575 -67677193 -285250625 -67125382
            1190070015 -1100081 -1353241361 -40789</internalNodes>
          <leafValues>
            -3.1130874156951904e-001 3.6644878983497620e-001</leafValues></_>
        <_>
          <internalNodes>
            0 -1 132 -167775907 1435835473 -2277 299237147 -318781268
            -1934762620 -420681073 -2012610641</internalNodes>
          <leafValues>
            -2.7000054717063904e-001 3.7402608990669250e-001</leafValues></_>
        <_>
          <internalNodes>
            0 -1 295 -544212269 -752757248 -2629263 -82721407 1530130923
            722193699 1469016507 251920267</internalNodes>
          <leafValues>
            -3.1252950429916382e-001 2.6552253961563110e-001</leafValues></_>
        <_>
          <internalNodes>
            0 -1 340 -536870929 -27799265 2017631270 577953058
            -286262716 -13954477 -84945088 -8652313</internalNodes>
          <leafValues>
            -3.2123938202857971e-001 2.5593090057373047e-001</leafValues></_>
        <_>
          <internalNodes>
            0 -1 173 -606077013 60546979 1985301026 2006711747
            1940016799 47288973 300538350 -685246986</internalNodes>
          <leafValues>
            -2.9172438383102417e-001 2.7433106303215027e-001</leafValues></_>
        <_>
          <internalNodes>
            0 -1 31 -805311853 -176176426 22958767 1914892218 1749750600
            -299690448 -581772452 -100466990</internalNodes>
          <leafValues>
            -3.0924040079116821e-001 2.5053715705871582e-001</leafValues></_>
        <_>
          <internalNodes>
            0 -1 283 -1065214604 -75757068 -107159905 -40089220
            -1348600919 -286296066 -1448485927 733480991</internalNodes>
          <leafValues>
            -3.2404291629791260e-001 2.3812846839427948e-001</leafValues></_>
        <_>
          <internalNodes>
            0 -1 322 -1901586607 -153458213 -685842445 -35931811
            622358713 -1161849155 972636159 -6548112</internalNodes>
          <leafValues>
            -3.1991598010063171e-001 2.3566031455993652e-001</leafValues></_>
        <_>
          <internalNodes>
            0 -1 314 1345568963 1541361055 708902783 278333943
            -613366702 -8921249 -481168417 -82055169</internalNodes>
          <leafValues>
            -2.1431301534175873e-001 3.4668651223182678e-001</leafValues></_>
        <_>
          <internalNodes>
            0 -1 347 -68419677 787986946 -629236944 -1814307870
            -73680970 1262475446 1396168128 -706216777</internalNodes>
          <leafValues>
            -3.1282436847686768e-001 2.3322717845439911e-001</leafValues></_>
        <_>
          <internalNodes>
            0 -1 142 -184894280 -38655092 857097524 -676909544
            -734764636 -26206068 173359564 1596260635</internalNodes>
          <leafValues>
            -3.2717666029930115e-001 2.3088358342647552e-001</leafValues></_>
        <_>
          <internalNodes>
            0 -1 355 -17958523 1308672284 1610806045 8435272 -179576135
            -1206164183 1505194112 -2002062208</internalNodes>
          <leafValues>
            -4.1049167513847351e-001 1.7959222197532654e-001</leafValues></_>
        <_>
          <internalNodes>
            0 -1 27 -17494 -688386342 -1055137417 -2131762005
            -1427851072 -791641146 -85345533 1309646927</internalNodes>
          <leafValues>
            -4.0140619874000549e-001 1.8109394609928131e-001</leafValues></_>
        <_>
          <internalNodes>
            0 -1 1 -343213221 1720625910 -1090175011 -287030544
            -1078314051 -2083868181 502224895 -4238251</internalNodes>
          <leafValues>
            -2.9232630133628845e-001 2.6361814141273499e-001</leafValues></_>
        <_>
          <internalNodes>
            0 -1 167 -122761549 2117033592 -8486915 1529577171
            -324101416 -762409 498765823 1050353435</internalNodes>
          <leafValues>
            -2.6258015632629395e-001 3.0029088258743286e-001</leafValues></_>
        <_>
          <internalNodes>
            0 -1 14 -227366608 -75045466 -754899681 2146112168 731971645
            -389338377 2131327811 1602698531</internalNodes>
          <leafValues>
            -3.4424781799316406e-001 2.3004461824893951e-001</leafValues></_>
        <_>
          <internalNodes>
            0 -1 104 -866996291 1607771567 -832822504 -576083798
            -63390283 -1198204424 2010484792 1108200074</internalNodes>
          <leafValues>
            -3.6063468456268311e-001 2.0694689452648163e-001</leafValues></_>
        <_>
          <internalNodes>
            0 -1 174 -1425293534 -923890004 -1621938576 -682313800
            655275959 -2022985219 1170469745 -990384009</internalNodes>
          <leafValues>
            -3.2278481125831604e-001 2.3424026370048523e-001</leafValues></_>
        <_>
          <internalNodes>
            0 -1 343 -924132240 -1109491715 -16777355 -201466371
            -390398032 -1082429441 -1360109815 -1430008065</internalNodes>
          <leafValues>
            -2.5277823209762573e-001 2.9666870832443237e-001</leafValues></_>
        <_>
          <internalNodes>
            0 -1 75 -330126735 550380767 1494769133 -1345297666
            -866521355 -1473430151 2145936383 974215543</internalNodes>
          <leafValues>
            -3.2319676876068115e-001 2.2704237699508667e-001</leafValues></_>
        <_>
          <internalNodes>
            0 -1 261 2029478594 295378783 637977238 202072975 -665231275
            1881149731 -196789649 695467007</internalNodes>
          <leafValues>
            -3.4865638613700867e-001 2.1429321169853210e-001</leafValues></_>
        <_>
          <internalNodes>
            0 -1 66 -6298641 -1039791642 -401141884 -689526290
            1527474774 2137131522 245584326 -210503833</internalNodes>
          <leafValues>
            -3.6965543031692505e-001 1.9915100932121277e-001</leafValues></_>
        <_>
          <internalNodes>
            0 -1 186 -765460924 -1603864576 -1985544523 1840115471
            -1192322252 -1085015885 332332081 674233103</internalNodes>
          <leafValues>
            -4.0088906884193420e-001 1.7811496555805206e-001</leafValues></_>
        <_>
          <internalNodes>
            0 -1 107 170132528 527179928 876962904 -1610707816
            1040326807 -1360014899 768279545 486214109</internalNodes>
          <leafValues>
            -5.8209097385406494e-001 1.2425292283296585e-001</leafValues></_>
        <_>
          <internalNodes>
            0 -1 324 48480465 444094429 -1400812454 432951450 1963224763
            2126122123 957037550 1268466571</internalNodes>
          <leafValues>
            -3.2843956351280212e-001 2.2760055959224701e-001</leafValues></_></weakClassifiers></_>
    <!-- stage 15 -->
    <_>
      <maxWeakCount>26</maxWeakCount>
      <stageThreshold>-1.6826335191726685e+000</stageThreshold>
      <weakClassifiers>
        <_>
          <internalNodes>
            0 -1 259 -34078721 -262145 -110117937 -571082753 -993198595
            -58394898 -100810753 -35782657</internalNodes>
          <leafValues>
            -3.5706770420074463e-001 4.5082679390907288e-001</leafValues></_>
        <_>
          <internalNodes>
            0 -1 118 -545783809 1431648597 -270541953 287145951
            -537004033 -596640611 -17441 -1170210817</internalNodes>
          <leafValues>
            -1.9563338160514832e-001 5.3477942943572998e-001</leafValues></_>
        <_>
          <internalNodes>
            0 -1 22 -2097153 -285293089 1855055263 1147859670 -875304065
            -273971030 -473973833 -19925026</internalNodes>
          <leafValues>
            -3.0768153071403503e-001 2.9507264494895935e-001</leafValues></_>
        <_>
          <internalNodes>
            0 -1 301 1075036755 -656989953 39907263 539184111 -648680097
            -363659401 -159928577 -211300353</internalNodes>
          <leafValues>
            -2.4701388180255890e-001 3.3961725234985352e-001</leafValues></_>
        <_>
          <internalNodes>
            0 -1 4 2109726203 665527175 831550965 129961487 2056617983
            2109275899 2073973503 2112846847</internalNodes>
          <leafValues>
            -3.5126602649688721e-001 2.4471740424633026e-001</leafValues></_>
        <_>
          <internalNodes>
            0 -1 161 -282067021 -807012382 -8424079 -138021420 799516147
            -822935562 896948021 -975179275</internalNodes>
          <leafValues>
            -2.5467327237129211e-001 3.2961249351501465e-001</leafValues></_>
        <_>
          <internalNodes>
            0 -1 377 -39060173 155337166 -1055523888 -1862877024
            -1152147744 59425544 1097323968 -732563020</internalNodes>
          <leafValues>
            -3.4952515363693237e-001 2.1351544559001923e-001</leafValues></_>
        <_>
          <internalNodes>
            0 -1 233 7371220 -17375271 498613751 -1141722529 -74579971
            -623188283 -1610793987 804201135</internalNodes>
          <leafValues>
            -3.1635886430740356e-001 2.6704421639442444e-001</leafValues></_>
        <_>
          <internalNodes>
            0 -1 226 -404247801 1622601151 -1622067806 -498145142
            1860921138 1069781911 -483716320 -491784523</internalNodes>
          <leafValues>
            -4.2542734742164612e-001 1.8177531659603119e-001</leafValues></_>
        <_>
          <internalNodes>
            0 -1 179 -128391292 -34293995 1363126105 -859779772
            -944640600 -1089295478 -278286387 -397744576</internalNodes>
          <leafValues>
            -3.7357017397880554e-001 2.0780973136425018e-001</leafValues></_>
        <_>
          <internalNodes>
            0 -1 207 -26176076 -572900097 -805306889 -1678002755
            -1078661223 -1099072010 -71385109 -1415894373</internalNodes>
          <leafValues>
            -2.4138972163200378e-001 3.2749474048614502e-001</leafValues></_>
        <_>
          <internalNodes>
            0 -1 44 -675287909 -721432937 -629166476 1342232551
            -278439410 -394638242 1448578140 -100600482</internalNodes>
          <leafValues>
            -2.4117942154407501e-001 3.1204232573509216e-001</leafValues></_>
        <_>
          <internalNodes>
            0 -1 311 275947600 983541323 -569802913 1004480447
            -1554990664 -68403997 -64504599 989025143</internalNodes>
          <leafValues>
            -3.4019801020622253e-001 2.3297277092933655e-001</leafValues></_>
        <_>
          <internalNodes>
            0 -1 144 -1936736293 -1467316234 838914193 -563154578
            658991765 -1914478415 1139561588 -540813888</internalNodes>
          <leafValues>
            -3.3364138007164001e-001 2.1975068747997284e-001</leafValues></_>
        <_>
          <internalNodes>
            0 -1 268 -886837464 319865152 -184419844 901589901
            -1215057419 540563457 408918104 158334171</internalNodes>
          <leafValues>
            -3.1582209467887878e-001 2.4968433380126953e-001</leafValues></_>
        <_>
          <internalNodes>
            0 -1 260 -483414514 775938783 -468565568 1623425262
            1417638228 49467404 -244614816 -302585249</internalNodes>
          <leafValues>
            -4.6351134777069092e-001 1.4629884064197540e-001</leafValues></_>
        <_>
          <internalNodes>
            0 -1 318 -432866512 1520307774 -49945249 -623485697
            331751728 -85305681 730609925 215749053</internalNodes>
          <leafValues>
            -4.5456674695014954e-001 1.6559448838233948e-001</leafValues></_>
        <_>
          <internalNodes>
            0 -1 127 -430512569 -690786533 -1427615362 -691625142
            1074988621 -545842581 1535592551 -8392865</internalNodes>
          <leafValues>
            -3.0199649930000305e-001 2.4634170532226563e-001</leafValues></_>
        <_>
          <internalNodes>
            0 -1 205 1254929232 -222520577 1056718719 -1882454849
            -816206420 1842945786 804478959 -1886451270</internalNodes>
          <leafValues>
            -2.6451486349105835e-001 2.8509727120399475e-001</leafValues></_>
        <_>
          <internalNodes>
            0 -1 77 1725214400 -757102577 1145368135 -825247573
            -1154757737 847904897 -1173271795 -407207928</internalNodes>
          <leafValues>
            -4.8092755675315857e-001 1.5506297349929810e-001</leafValues></_>
        <_>
          <internalNodes>
            0 -1 366 -556571307 1937709369 -1872569793 451906431
            -149474240 -1348833239 -972768496 -360777765</internalNodes>
          <leafValues>
            -2.9078233242034912e-001 2.6055502891540527e-001</leafValues></_>
        <_>
          <internalNodes>
            0 -1 111 -892771546 -614690485 -642417107 2144781851
            1704214532 888164543 -15008993 1331102531</internalNodes>
          <leafValues>
            -3.2483491301536560e-001 2.3492099344730377e-001</leafValues></_>
        <_>
          <internalNodes>
            0 -1 37 -606084597 -812877354 1544553650 1892062874
            2065876800 436410725 1451962960 -245377082</internalNodes>
          <leafValues>
            -3.6532548069953918e-001 1.9806127250194550e-001</leafValues></_>
        <_>
          <internalNodes>
            0 -1 193 57991796 -766245188 889632733 -1401023401
            -636413579 -802833935 980259649 792265229</internalNodes>
          <leafValues>
            -4.2325484752655029e-001 1.7500498890876770e-001</leafValues></_>
        <_>
          <internalNodes>
            0 -1 98 1143465858 -214515618 -2019734404 -201337868
            12786623 -1095335901 1394832845 -715659885</internalNodes>
          <leafValues>
            -2.7705624699592590e-001 2.7192980051040649e-001</leafValues></_>
        <_>
          <internalNodes>
            0 -1 146 -872395745 357778579 352998303 831746557 1355586782
            -1986527209 1416154366 257426707</internalNodes>
          <leafValues>
            -3.4887894988059998e-001 2.1856470406055450e-001</leafValues></_></weakClassifiers></_>
    <!-- stage 16 -->
    <_>
      <maxWeakCount>27</maxWeakCount>
      <stageThreshold>-1.7327014207839966e+000</stageThreshold>
      <weakClassifiers>
        <_>
          <internalNodes>
            0 -1 169 -37748737 -1 901880815 -537014326 -1048577 -4214785
            -14828882 -1078</internalNodes>
          <leafValues>
            -3.5724481940269470e-001 4.1819700598716736e-001</leafValues></_>
        <_>
          <internalNodes>
            0 -1 310 -725549058 1372715263 -3940909 -140511233
            -144245042 -4462405 -674518069 -2621953</internalNodes>
          <leafValues>
            -3.7733468413352966e-001 2.8492653369903564e-001</leafValues></_>
        <_>
          <internalNodes>
            0 -1 162 -1118209 -545194062 2147431359 -37802712 1862297578
            -1979701328 1610034463 -551333613</internalNodes>
          <leafValues>
            -2.5483524799346924e-001 3.7302929162979126e-001</leafValues></_>
        <_>
          <internalNodes>
            0 -1 50 -352429035 -620039570 -1861762799 -143961689
            -374909703 1518895239 -343190867 -2098223</internalNodes>
          <leafValues>
            -3.5151425004005432e-001 2.2299359738826752e-001</leafValues></_>
        <_>
          <internalNodes>
            0 -1 249 2099248 -1126417072 -1466508035 -1187275160
            531372284 -1147225840 732636089 261883960</internalNodes>
          <leafValues>
            -4.1272574663162231e-001 2.1131704747676849e-001</leafValues></_>
        <_>
          <internalNodes>
            0 -1 199 -545280025 247921670 -1537810572 -154076298
            1762959425 -99931133 -866784396 1986525854</internalNodes>
          <leafValues>
            -3.2405331730842590e-001 2.3452237248420715e-001</leafValues></_>
        <_>
          <internalNodes>
            0 -1 358 -262237 1782968610 -249308880 38987264 -1603417696
            -1922248076 393703760 -654846524</internalNodes>
          <leafValues>
            -3.3632510900497437e-001 2.3184248805046082e-001</leafValues></_>
        <_>
          <internalNodes>
            0 -1 82 -270533697 -295796474 -118514434 2129589322
            -376440581 -877700453 -443824944 -17842961</internalNodes>
          <leafValues>
            -2.9794257879257202e-001 2.3110549151897430e-001</leafValues></_>
        <_>
          <internalNodes>
            0 -1 243 -520895966 1365226948 -1374797394 789507853
            -245762796 808923440 -1153971811 421522815</internalNodes>
          <leafValues>
            -3.1624484062194824e-001 2.1856173872947693e-001</leafValues></_>
        <_>
          <internalNodes>
            0 -1 281 2090064864 -1330334722 1091816184 17175918
            -369897223 957534724 -1973055829 134418107</internalNodes>
          <leafValues>
            -3.3314740657806396e-001 2.1204702556133270e-001</leafValues></_>
        <_>
          <internalNodes>
            0 -1 159 589533217 -2136285776 1472945937 -182453392
            664320701 -207892453 788738483 -1647360562</internalNodes>
          <leafValues>
            -3.0601662397384644e-001 2.3396345973014832e-001</leafValues></_>
        <_>
          <internalNodes>
            0 -1 70 -563347809 -209738010 1625548379 1919676079
            1282163916 -825789364 1323289823 -69251073</internalNodes>
          <leafValues>
            -2.2686065733432770e-001 3.3137673139572144e-001</leafValues></_>
        <_>
          <internalNodes>
            0 -1 91 2023936660 -712638324 1581446933 2144090117
            -544952336 -16810267 923548503 432279573</internalNodes>
          <leafValues>
            -3.9087310433387756e-001 1.8836006522178650e-001</leafValues></_>
        <_>
          <internalNodes>
            0 -1 71 -540030293 -34624274 -1435569456 1348402930
            -472937406 1850667360 -1639451546 -763893797</internalNodes>
          <leafValues>
            -2.5069522857666016e-001 2.8339457511901855e-001</leafValues></_>
        <_>
          <internalNodes>
            0 -1 89 -768299596 1579977752 -555830561 -1358395807
            -1167066653 -338968382 1932622399 763043127</internalNodes>
          <leafValues>
            -2.9741722345352173e-001 2.2809799015522003e-001</leafValues></_>
        <_>
          <internalNodes>
            0 -1 292 -87571697 316414423 -656945954 1620730055
            2099921987 1077826386 1581685262 -629735693</internalNodes>
          <leafValues>
            -3.0229946970939636e-001 2.3271629214286804e-001</leafValues></_>
        <_>
          <internalNodes>
            0 -1 156 -1971452587 533925887 -2116570889 980171739
            -1093739023 -21171813 -82119171 -1438974049</internalNodes>
          <leafValues>
            -2.7293822169303894e-001 2.5379353761672974e-001</leafValues></_>
        <_>
          <internalNodes>
            0 -1 246 876532848 1603548240 -707996099 -810622820
            187668341 -619148848 686381946 803671103</internalNodes>
          <leafValues>
            -3.6046144366264343e-001 1.9556432962417603e-001</leafValues></_>
        <_>
          <internalNodes>
            0 -1 236 676908080 243641767 -1243125677 178251667 244964535
            168794931 405621797 177987775</internalNodes>
          <leafValues>
            -3.9446148276329041e-001 1.6911762952804565e-001</leafValues></_>
        <_>
          <internalNodes>
            0 -1 330 -1862622956 -110809001 1805187359 -296091653
            -13100208 -1145331849 -1415275207 -1896130305</internalNodes>
          <leafValues>
            -2.6511979103088379e-001 2.5335767865180969e-001</leafValues></_>
        <_>
          <internalNodes>
            0 -1 160 -653789310 -2132487766 -708350188 -1783796418
            560125943 -1971294048 1729319149 1171222779</internalNodes>
          <leafValues>
            -2.8097155690193176e-001 2.4033962190151215e-001</leafValues></_>
        <_>
          <internalNodes>
            0 -1 43 -419443153 -740032601 -352955796 -267913566
            1549061519 -1101050505 1417500352 -8912921</internalNodes>
          <leafValues>
            -2.4598243832588196e-001 2.7758255600929260e-001</leafValues></_>
        <_>
          <internalNodes>
            0 -1 183 943727664 469563102 -1525078049 2102930751
            -1814383940 -34304614 -631734887 159976589</internalNodes>
          <leafValues>
            -3.4035968780517578e-001 1.9824326038360596e-001</leafValues></_>
        <_>
          <internalNodes>
            0 -1 342 -137365617 67106266 -2138970348 302027170
            -1314962688 1863550235 -1176766524 -252773706</internalNodes>
          <leafValues>
            -3.7737706303596497e-001 1.9162885844707489e-001</leafValues></_>
        <_>
          <internalNodes>
            0 -1 344 135267668 937429569 1660973397 991517106
            -1863968599 -1148196183 -1173581062 1005201015</internalNodes>
          <leafValues>
            -5.2744728326797485e-001 1.2808750569820404e-001</leafValues></_>
        <_>
          <internalNodes>
            0 -1 204 -825978511 -1972588913 583336311 -1004979529
            -263589087 -666115112 -2081803471 -1637400766</internalNodes>
          <leafValues>
            -3.2589665055274963e-001 2.1143020689487457e-001</leafValues></_>
        <_>
          <internalNodes>
            0 -1 95 1534992946 363760904 427925009 -1176514706 931888003
            754702469 -1391769171 141556411</internalNodes>
          <leafValues>
            -3.6424425244331360e-001 1.8757955729961395e-001</leafValues></_></weakClassifiers></_>
    <!-- stage 17 -->
    <_>
      <maxWeakCount>31</maxWeakCount>
      <stageThreshold>-1.7730528116226196e+000</stageThreshold>
      <weakClassifiers>
        <_>
          <internalNodes>
            0 -1 202 536182783 -2635 1006580735 -21761 -1025 -2392129
            -1073766469 -21830</internalNodes>
          <leafValues>
            -2.8887531161308289e-001 6.1713892221450806e-001</leafValues></_>
        <_>
          <internalNodes>
            0 -1 155 -108150801 -1275913753 528597900 -204344626
            2022832879 -211237151 2068181708 2144858827</internalNodes>
          <leafValues>
            -3.6808165907859802e-001 2.9032683372497559e-001</leafValues></_>
        <_>
          <internalNodes>
            0 -1 369 -805313673 -1422919457 -1781829397 -26233965
            -204477481 -893794385 -577768144 -18153648</internalNodes>
          <leafValues>
            -3.4321755170822144e-001 2.7496555447578430e-001</leafValues></_>
        <_>
          <internalNodes>
            0 -1 158 -1394147553 -1362360178 -2002070345 -1366408306
            -229118989 -11292809 -165284745 -467359693</internalNodes>
          <leafValues>
            -4.0663498640060425e-001 1.6603511571884155e-001</leafValues></_>
        <_>
          <internalNodes>
            0 -1 319 -1006567504 -557820480 -1190060547 -12291504 46845
            -5758525 429944765 172032277</internalNodes>
          <leafValues>
            -3.4478738903999329e-001 2.5165867805480957e-001</leafValues></_>
        <_>
          <internalNodes>
            0 -1 23 -276824321 -286353189 -7037233 -320317030 -70669481
            -1190409485 -475532351 -4457482</internalNodes>
          <leafValues>
            -3.5545495152473450e-001 2.1408213675022125e-001</leafValues></_>
        <_>
          <internalNodes>
            0 -1 185 -1407158512 1997543133 -1793174189 2140559221
            -1097557059 -1074134053 -1366802465 735779899</internalNodes>
          <leafValues>
            -3.1281238794326782e-001 2.3297868669033051e-001</leafValues></_>
        <_>
          <internalNodes>
            0 -1 7 -1907578311 -112112289 164989499 709437631
            -1627349209 -578689588 -108746178 -1070309</internalNodes>
          <leafValues>
            -4.0264159440994263e-001 1.6513732075691223e-001</leafValues></_>
        <_>
          <internalNodes>
            0 -1 191 -5783805 -1423773784 -4231387 -738198092
            -1249978563 250310629 1365230916 -838862857</internalNodes>
          <leafValues>
            -2.3800764977931976e-001 3.0805838108062744e-001</leafValues></_>
        <_>
          <internalNodes>
            0 -1 346 -539031009 238363454 -1367310349 4520666 -625408508
            -1815994112 -606543676 -629473810</internalNodes>
          <leafValues>
            -3.5310718417167664e-001 1.9694890081882477e-001</leafValues></_>
        <_>
          <internalNodes>
            0 -1 267 -26939428 1439735092 -47911363 2113652011 -43848777
            2020624262 1180757871 251904379</internalNodes>
          <leafValues>
            -2.6992112398147583e-001 2.8043815493583679e-001</leafValues></_>
        <_>
          <internalNodes>
            0 -1 51 -1429002313 -905150332 -2017209883 769407924
            -1947584357 -1147237933 -1345575177 -1644342415</internalNodes>
          <leafValues>
            -3.2707560062408447e-001 2.2339235246181488e-001</leafValues></_>
        <_>
          <internalNodes>
            0 -1 315 -588263713 1411284014 1190686717 813137919
            -687915747 -849524924 -1242048513 -231473289</internalNodes>
          <leafValues>
            -2.1657367050647736e-001 3.3192461729049683e-001</leafValues></_>
        <_>
          <internalNodes>
            0 -1 134 1439478974 1425318947 -894980348 -1778417601
            214024393 956115081 1763122191 298827499</internalNodes>
          <leafValues>
            -3.2373327016830444e-001 2.2454170882701874e-001</leafValues></_>
        <_>
          <internalNodes>
            0 -1 219 1483749364 -1306881 -142311437 365542682 -283952071
            -10310774 -1278075969 738134746</internalNodes>
          <leafValues>
            -3.1628048419952393e-001 2.2132351994514465e-001</leafValues></_>
        <_>
          <internalNodes>
            0 -1 375 -708846665 610773282 -932710634 172740769 520778115
            -1419066965 1162342592 -796928128</internalNodes>
          <leafValues>
            -2.7251738309860229e-001 2.7599486708641052e-001</leafValues></_>
        <_>
          <internalNodes>
            0 -1 46 -167778581 -551553073 1115568376 1886960459
            -12587449 -583054015 2012210938 -161743153</internalNodes>
          <leafValues>
            -1.9262833893299103e-001 3.7953004240989685e-001</leafValues></_>
        <_>
          <internalNodes>
            0 -1 329 -610615499 -1095497253 -1622276297 -153420393
            -1336822731 -1624011757 2047434609 -1973627659</internalNodes>
          <leafValues>
            -3.1720304489135742e-001 2.1503446996212006e-001</leafValues></_>
        <_>
          <internalNodes>
            0 -1 84 -755318176 -1038454417 633289989 1245399583
            -2136422782 9621938 287312129 1146313298</internalNodes>
          <leafValues>
            -4.9273243546485901e-001 1.3577051460742950e-001</leafValues></_>
        <_>
          <internalNodes>
            0 -1 126 250609155 -17902514 1969247549 -622399336 736790714
            -1031042888 666892128 -318778272</internalNodes>
          <leafValues>
            -2.9853099584579468e-001 2.3509603738784790e-001</leafValues></_>
        <_>
          <internalNodes>
            0 -1 331 -52797792 -1166252008 391903163 -1637895459
            -242697336 -1152730913 444725513 214653367</internalNodes>
          <leafValues>
            -3.1486946344375610e-001 2.1484532952308655e-001</leafValues></_>
        <_>
          <internalNodes>
            0 -1 245 -583025608 -13629640 -1192235396 1304339551
            -5311500 -1338870352 738493199 722419935</internalNodes>
          <leafValues>
            -2.9900994896888733e-001 2.2868430614471436e-001</leafValues></_>
        <_>
          <internalNodes>
            0 -1 152 -713850586 -2140266206 495803534 1976283274
            924142550 73404550 1478325071 1296519443</internalNodes>
          <leafValues>
            -3.4707188606262207e-001 1.9352260231971741e-001</leafValues></_>
        <_>
          <internalNodes>
            0 -1 252 -1966619865 -388902141 1496057325 -300273033
            1234337634 -1738864195 1083928628 -37416554</internalNodes>
          <leafValues>
            -3.8330614566802979e-001 1.8299321830272675e-001</leafValues></_>
        <_>
          <internalNodes>
            0 -1 166 -2138538384 -621275532 -1692383660 765409424
            805341552 -1957160908 1288979580 225903935</internalNodes>
          <leafValues>
            -4.1555717587471008e-001 1.6375762224197388e-001</leafValues></_>
        <_>
          <internalNodes>
            0 -1 237 27319061 102003610 1597460817 -1361052930
            1004924917 -1175230413 703690997 -1436962564</internalNodes>
          <leafValues>
            -3.0605283379554749e-001 2.3608565330505371e-001</leafValues></_>
        <_>
          <internalNodes>
            0 -1 76 -1863402380 -156076036 1073675861 2112726061
            -544110923 -925060679 1526595325 -1146147257</internalNodes>
          <leafValues>
            -2.2035904228687286e-001 3.1139075756072998e-001</leafValues></_>
        <_>
          <internalNodes>
            0 -1 380 -107236677 -1884634630 -934326062 1431017122
            -1950879070 1160413396 1393747428 1166537041</internalNodes>
          <leafValues>
            -2.8625202178955078e-001 2.4475261569023132e-001</leafValues></_>
        <_>
          <internalNodes>
            0 -1 227 1474684559 991592923 818746019 895312995 1345414231
            2114636315 -975443459 -1215471914</internalNodes>
          <leafValues>
            -3.1655612587928772e-001 2.2670060396194458e-001</leafValues></_>
        <_>
          <internalNodes>
            0 -1 263 2105855672 -1828705291 -394122800 339223130
            -161211591 -64412108 1594988712 223152158</internalNodes>
          <leafValues>
            -3.7200009822845459e-001 1.8667840957641602e-001</leafValues></_>
        <_>
          <internalNodes>
            0 -1 338 438173789 975972331 -111974345 277483531
            -1201798999 -1351271 -1450677509 -1365110320</internalNodes>
          <leafValues>
            -3.7928465008735657e-001 1.7776265740394592e-001</leafValues></_></weakClassifiers></_>
    <!-- stage 18 -->
    <_>
      <maxWeakCount>29</maxWeakCount>
      <stageThreshold>-1.7713904380798340e+000</stageThreshold>
      <weakClassifiers>
        <_>
          <internalNodes>
            0 -1 197 -2057 -20517 2076180399 -21105 -1052673 -16924753
            -1070165 -1052786</internalNodes>
          <leafValues>
            -3.1233254075050354e-001 5.0149333477020264e-001</leafValues></_>
        <_>
          <internalNodes>
            0 -1 188 -36700245 -993069141 -152178912 -841090321 20166061
            83294071 -8395025 -975175941</internalNodes>
          <leafValues>
            -2.5437316298484802e-001 3.5321760177612305e-001</leafValues></_>
        <_>
          <internalNodes>
            0 -1 306 -35652102 -553005776 417191129 2099229985
            -1266942790 -1627260469 -1160063798 134935434</internalNodes>
          <leafValues>
            -3.1108191609382629e-001 2.7316471934318542e-001</leafValues></_>
        <_>
          <internalNodes>
            0 -1 362 -461381769 -288624281 -1189877481 -543162869
            -41688235 -389300065 -139463756 -16842924</internalNodes>
          <leafValues>
            -3.3644142746925354e-001 2.1315601468086243e-001</leafValues></_>
        <_>
          <internalNodes>
            0 -1 321 -2071948496 -566750268 766746109 -46359715
            170162133 -591660118 -1314579203 156979297</internalNodes>
          <leafValues>
            -3.4265783429145813e-001 2.2137202322483063e-001</leafValues></_>
        <_>
          <internalNodes>
            0 -1 135 -606605155 368928021 -1392559339 357957409
            -1375867712 -1111708632 -1409573713 -2001736054</internalNodes>
          <leafValues>
            -2.4216878414154053e-001 3.0489125847816467e-001</leafValues></_>
        <_>
          <internalNodes>
            0 -1 143 -861082701 -1971027136 -509617420 -632621326
            -961083920 -1016201117 1156018448 -570427935</internalNodes>
          <leafValues>
            -3.2349905371665955e-001 2.0906849205493927e-001</leafValues></_>
        <_>
          <internalNodes>
            0 -1 12 -1193220271 -120613670 -1073423843 -588270781
            -673191364 -111542232 -71327043 -6313288</internalNodes>
          <leafValues>
            -2.9450500011444092e-001 2.3693582415580750e-001</leafValues></_>
        <_>
          <internalNodes>
            0 -1 86 -621805833 -16814678 -25988910 1378549630 1105175232
            1012174606 -185610040 -597960209</internalNodes>
          <leafValues>
            -2.4781627953052521e-001 2.8494384884834290e-001</leafValues></_>
        <_>
          <internalNodes>
            0 -1 181 408042418 -1747308271 -2125145673 -1155847666
            406856665 991297604 1583352202 153179743</internalNodes>
          <leafValues>
            -2.9961490631103516e-001 2.3630779981613159e-001</leafValues></_>
        <_>
          <internalNodes>
            0 -1 379 -30678109 252360336 -1289997372 1052309524
            993707954 -500637563 -1856383756 -851389228</internalNodes>
          <leafValues>
            -3.4966480731964111e-001 1.7511592805385590e-001</leafValues></_>
        <_>
          <internalNodes>
            0 -1 10 -1372355593 -459133654 -287193791 -843207948
            670542846 -1421901849 531060723 -58121</internalNodes>
          <leafValues>
            -1.9419632852077484e-001 3.4456643462181091e-001</leafValues></_>
        <_>
          <internalNodes>
            0 -1 195 551309141 -19722249 1337917439 527839518 1127427956
            -15659669 535374454 -1085144288</internalNodes>
          <leafValues>
            -3.1083938479423523e-001 2.2217698395252228e-001</leafValues></_>
        <_>
          <internalNodes>
            0 -1 303 -858011636 272056847 -536685182 166235 1374914268
            1490053656 -468403238 1074131807</internalNodes>
          <leafValues>
            -4.1544812917709351e-001 1.5015509724617004e-001</leafValues></_>
        <_>
          <internalNodes>
            0 -1 255 -310147317 -393034787 -644525731 1611126255
            -937652447 -1196910590 -638114461 -51384292</internalNodes>
          <leafValues>
            -3.0418407917022705e-001 2.0590767264366150e-001</leafValues></_>
        <_>
          <internalNodes>
            0 -1 235 78657808 -184788106 274166488 122957756 -1948175623
            -574308215 -608259655 698355232</internalNodes>
          <leafValues>
            -4.9221742153167725e-001 1.3666655123233795e-001</leafValues></_>
        <_>
          <internalNodes>
            0 -1 32 -187708161 1444901318 -1577014124 -891391270
            -114298335 1661659222 1999370562 -246426605</internalNodes>
          <leafValues>
            -2.9797592759132385e-001 2.1862696111202240e-001</leafValues></_>
        <_>
          <internalNodes>
            0 -1 137 1783480838 1583284619 -1065052860 -557870181
            -97801598 -125157248 -216548425 1514967576</internalNodes>
          <leafValues>
            -3.3673158288002014e-001 1.9327823817729950e-001</leafValues></_>
        <_>
          <internalNodes>
            0 -1 270 78374960 280280372 -1106462572 -1156841263
            197964273 676338033 -52613477 146349835</internalNodes>
          <leafValues>
            -3.5398814082145691e-001 1.7192105948925018e-001</leafValues></_>
        <_>
          <internalNodes>
            0 -1 153 2081401416 1812892071 1145116234 -1936760581
            -109510096 -1173614046 -789580029 642167303</internalNodes>
          <leafValues>
            -4.3311977386474609e-001 1.4457190036773682e-001</leafValues></_>
        <_>
          <internalNodes>
            0 -1 332 -327114820 -5756716 -1824439841 -184678855
            741092044 -40162290 -1087816769 1057357841</internalNodes>
          <leafValues>
            -3.6384412646293640e-001 1.7309568822383881e-001</leafValues></_>
        <_>
          <internalNodes>
            0 -1 280 1212408330 1357318920 996197646 1091174699
            1880163345 1511196421 -1316934584 1901193855</internalNodes>
          <leafValues>
            -4.1026666760444641e-001 1.4958851039409637e-001</leafValues></_>
        <_>
          <internalNodes>
            0 -1 109 -1472230413 1788926428 2086662495 1545391964
            -108328521 -1465948005 -1207897660 -90227500</internalNodes>
          <leafValues>
            -2.6664468646049500e-001 2.5662118196487427e-001</leafValues></_>
        <_>
          <internalNodes>
            0 -1 244 315009252 -1835625052 290620432 803851117
            -372797012 -1313852653 576523929 152292378</internalNodes>
          <leafValues>
            -3.3573284745216370e-001 1.8814189732074738e-001</leafValues></_>
        <_>
          <internalNodes>
            0 -1 341 -89193357 2062619463 -1856942049 437317650
            -2084628412 497762573 -354691372 -897386258</internalNodes>
          <leafValues>
            -2.8375437855720520e-001 2.2620254755020142e-001</leafValues></_>
        <_>
          <internalNodes>
            0 -1 203 683959084 -170872437 46598549 688824894 2030828532
            -1436833704 -619734758 -383186710</internalNodes>
          <leafValues>
            -2.6572480797767639e-001 2.4386058747768402e-001</leafValues></_>
        <_>
          <internalNodes>
            0 -1 187 -861119824 -1668408502 -1893187072 870254603
            2106785 -559314943 541274960 -369270433</internalNodes>
          <leafValues>
            -4.9294224381446838e-001 1.3420574367046356e-001</leafValues></_>
        <_>
          <internalNodes>
            0 -1 164 -360468726 -287926760 1552539376 -82669406
            -2080920457 5464850 1886867664 -952901339</internalNodes>
          <leafValues>
            -3.4681677818298340e-001 1.8075117468833923e-001</leafValues></_>
        <_>
          <internalNodes>
